<?xml version="1.0"?>
<opencv_storage>
<cascade>
  <stageType>BOOST</stageType>
  <featureType>HAAR</featureType>
  <height>64</height>
  <width>64</width>
  <stageParams>
    <boostType>GAB</boostType>
    <minHitRate>9.9500000476837158e-01</minHitRate>
    <maxFalseAlarm>5.0000000000000000e-01</maxFalseAlarm>
    <weightTrimRate>9.4999998807907104e-01</weightTrimRate>
    <maxDepth>1</maxDepth>
    <maxWeakCount>100</maxWeakCount></stageParams>
  <featureParams>
    <maxCatCount>0</maxCatCount>
    <featSize>1</featSize>
    <mode>BASIC</mode></featureParams>
  <stageNum>7</stageNum>
  <stages>
    <!-- stage 0 -->
    <_>
      <maxWeakCount>2</maxWeakCount>
      <stageThreshold>-1.6950450837612152e-01</stageThreshold>
      <weakClassifiers>
        <_>
          <internalNodes>
            0 -1 5 2.9074274003505707e-02</internalNodes>
          <leafValues>
            -9.5999997854232788e-01 7.6470589637756348e-01</leafValues></_>
        <_>
          <internalNodes>
            0 -1 2 2.6803828775882721e-02</internalNodes>
          <leafValues>
            -9.3421041965484619e-01 8.6768084764480591e-01</leafValues></_></weakClassifiers></_>
    <!-- stage 1 -->
    <_>
      <maxWeakCount>2</maxWeakCount>
      <stageThreshold>-6.0420297086238861e-03</stageThreshold>
      <weakClassifiers>
        <_>
          <internalNodes>
            0 -1 13 1.7859555082395673e-03</internalNodes>
          <leafValues>
            -9.4174754619598389e-01 1.</leafValues></_>
        <_>
          <internalNodes>
            0 -1 12 1.7344185616821051e-03</internalNodes>
          <leafValues>
            -9.4441264867782593e-01 9.3570554256439209e-01</leafValues></_></weakClassifiers></_>
    <!-- stage 2 -->
    <_>
      <maxWeakCount>2</maxWeakCount>
      <stageThreshold>-2.4526296555995941e-01</stageThreshold>
      <weakClassifiers>
        <_>
          <internalNodes>
            0 -1 0 1.3582739979028702e-02</internalNodes>
          <leafValues>
            -9.2307692766189575e-01 1.</leafValues></_>
        <_>
          <internalNodes>
            0 -1 11 -6.2087355181574821e-03</internalNodes>
          <leafValues>
            6.7781394720077515e-01 -9.8028314113616943e-01</leafValues></_></weakClassifiers></_>
    <!-- stage 3 -->
    <_>
      <maxWeakCount>2</maxWeakCount>
      <stageThreshold>-2.8368464112281799e-01</stageThreshold>
      <weakClassifiers>
        <_>
          <internalNodes>
            0 -1 8 3.8271544035524130e-03</internalNodes>
          <leafValues>
            -9.2307692766189575e-01 1.</leafValues></_>
        <_>
          <internalNodes>
            0 -1 14 -4.2021451517939568e-03</internalNodes>
          <leafValues>
            6.3939225673675537e-01 -8.8725638389587402e-01</leafValues></_></weakClassifiers></_>
    <!-- stage 4 -->
    <_>
      <maxWeakCount>3</maxWeakCount>
      <stageThreshold>-1.1093174219131470e+00</stageThreshold>
      <weakClassifiers>
        <_>
          <internalNodes>
            0 -1 4 -2.0134709775447845e-02</internalNodes>
          <leafValues>
            1. -9.0476191043853760e-01</leafValues></_>
        <_>
          <internalNodes>
            0 -1 9 1.0594733990728855e-02</internalNodes>
          <leafValues>
            -8.7674927711486816e-01 6.6934365034103394e-01</leafValues></_>
        <_>
          <internalNodes>
            0 -1 3 8.2599177956581116e-02</internalNodes>
          <leafValues>
            -9.6043115854263306e-01 6.7219382524490356e-01</leafValues></_></weakClassifiers></_>
    <!-- stage 5 -->
    <_>
      <maxWeakCount>2</maxWeakCount>
      <stageThreshold>-2.1395064890384674e-01</stageThreshold>
      <weakClassifiers>
        <_>
          <internalNodes>
            0 -1 6 1.2760061770677567e-02</internalNodes>
          <leafValues>
            -9.4174754619598389e-01 1.</leafValues></_>
        <_>
          <internalNodes>
            0 -1 10 -6.9536478258669376e-04</internalNodes>
          <leafValues>
            7.2779691219329834e-01 -8.5422515869140625e-01</leafValues></_></weakClassifiers></_>
    <!-- stage 6 -->
    <_>
      <maxWeakCount>2</maxWeakCount>
      <stageThreshold>-2.1037633717060089e-01</stageThreshold>
      <weakClassifiers>
        <_>
          <internalNodes>
            0 -1 1 1.7502782866358757e-02</internalNodes>
          <leafValues>
            -9.0476191043853760e-01 1.</leafValues></_>
        <_>
          <internalNodes>
            0 -1 7 2.5338372215628624e-03</internalNodes>
          <leafValues>
            -8.3984702825546265e-01 6.9438558816909790e-01</leafValues></_></weakClassifiers></_></stages>
  <features>
    <_>
      <rects>
        <_>
          0 12 28 9 -1.</_>
        <_>
          0 15 28 3 3.</_></rects>
      <tilted>0</tilted></_>
    <_>
      <rects>
        <_>
          0 17 21 6 -1.</_>
        <_>
          7 17 7 6 3.</_></rects>
      <tilted>0</tilted></_>
    <_>
      <rects>
        <_>
          0 19 60 15 -1.</_>
        <_>
          0 24 60 5 3.</_></rects>
      <tilted>0</tilted></_>
    <_>
      <rects>
        <_>
          0 21 63 17 -1.</_>
        <_>
          21 21 21 17 3.</_></rects>
      <tilted>0</tilted></_>
    <_>
      <rects>
        <_>
          8 20 18 5 -1.</_>
        <_>
          14 20 6 5 3.</_></rects>
      <tilted>0</tilted></_>
    <_>
      <rects>
        <_>
          10 31 54 5 -1.</_>
        <_>
          28 31 18 5 3.</_></rects>
      <tilted>0</tilted></_>
    <_>
      <rects>
        <_>
          12 19 9 12 -1.</_>
        <_>
          12 25 9 6 2.</_></rects>
      <tilted>0</tilted></_>
    <_>
      <rects>
        <_>
          14 13 3 47 -1.</_>
        <_>
          15 13 1 47 3.</_></rects>
      <tilted>0</tilted></_>
    <_>
      <rects>
        <_>
          16 43 6 6 -1.</_>
        <_>
          18 43 2 6 3.</_></rects>
      <tilted>0</tilted></_>
    <_>
      <rects>
        <_>
          18 17 4 36 -1.</_>
        <_>
          18 29 4 12 3.</_></rects>
      <tilted>0</tilted></_>
    <_>
      <rects>
        <_>
          20 47 2 14 -1.</_>
        <_>
          20 47 1 7 2.</_>
        <_>
          21 54 1 7 2.</_></rects>
      <tilted>0</tilted></_>
    <_>
      <rects>
        <_>
          21 38 15 8 -1.</_>
        <_>
          21 42 15 4 2.</_></rects>
      <tilted>0</tilted></_>
    <_>
      <rects>
        <_>
          24 4 3 48 -1.</_>
        <_>
          25 4 1 48 3.</_></rects>
      <tilted>0</tilted></_>
    <_>
      <rects>
        <_>
          37 37 8 4 -1.</_>
        <_>
          41 37 4 4 2.</_></rects>
      <tilted>0</tilted></_>
    <_>
      <rects>
        <_>
          45 5 6 26 -1.</_>
        <_>
          47 5 2 26 3.</_></rects>
      <tilted>0</tilted></_></features></cascade>
</opencv_storage>
